<?xml version="1.0"?>
<opencv_storage>
<stage4>
  <maxWeakCount>5</maxWeakCount>
  <stageThreshold>-2.1094357967376709e+00</stageThreshold>
  <weakClassifiers>
    <_>
      <internalNodes>
        0 -1 134909 4.8547163605690002e-02</internalNodes>
      <leafValues>
        -9.5431184768676758e-01 -2.8730511665344238e-01</leafValues></_>
    <_>
      <internalNodes>
        0 -1 86384 -8.4430985152721405e-03</internalNodes>
      <leafValues>
        1.1821671575307846e-01 -9.3633073568344116e-01</leafValues></_>
    <_>
      <internalNodes>
        0 -1 24730 1.3610410690307617e-01</internalNodes>
      <leafValues>
        -8.9337778091430664e-01 3.3263230323791504e-01</leafValues></_>
    <_>
      <internalNodes>
        0 -1 158062 2.8138082474470139e-02</internalNodes>
      <leafValues>
        -9.3939739465713501e-01 2.6039025187492371e-01</leafValues></_>
    <_>
      <internalNodes>
        0 -1 14229 -1.8066701292991638e-01</internalNodes>
      <leafValues>
        4.1419440507888794e-01 -8.2893216609954834e-01</leafValues></_></weakClassifiers></stage4>
</opencv_storage>
